svm_type c_svc
kernel_type rbf
gamma 1
nr_class 2
total_sv 53
rho -0.49542173809569545
label 0 1
probA -3.196248234007296
probB -0.17775450200730958
nr_sv 29 24
SV
26.521146084410507 1:-0.619607 2:-0.669013 3:0.489466 4:-0.271779 5:-0.683913 6:0.155388 7:0.323075 8:0.499521 9:0.816877 10:-0.797958 11:-0.780457 
0.025813924528765901 1:0.94161 2:0.442863 3:-0.422163 4:0.793482 5:0.457549 6:-0.760489 7:-0.49329 8:-0.983669 9:-0.587326 10:0.298468 11:0.307766 
0.12454586217652575 1:0.395966 2:0.584243 3:-0.377038 4:0.894756 5:0.413023 6:-0.503831 7:-0.365918 8:-0.170255 9:-0.165071 10:-0.189582 11:-0.0558448 
62.201659348708453 1:-0.44805 2:-0.758369 3:0.36875 4:-0.428306 5:-0.70787 6:-0.196431 7:0.103738 8:0.293494 9:0.766946 10:-0.579116 11:-0.568061 
0.32747550113915885 1:1 2:0.363406 3:-0.587438 4:0.570292 5:0.427486 6:-0.704763 7:-0.501087 8:-1 9:-0.587326 10:0.295784 11:0.31943 
64 1:-0.484768 2:-0.715207 3:0.430173 4:-0.26005 5:-0.723285 6:-0.115094 7:0.0345449 8:0.341493 9:0.786984 10:-0.631554 11:-0.572492 
0.38918501309525055 1:0.793788 2:0.138196 3:0.0635446 4:0.0992447 5:0.614552 6:-1 7:-1 8:-0.00975161 9:0.0676666 10:0.257612 11:0.773318 
0.0032307978067976375 1:0.64966 2:0.57655 3:-0.145951 4:0.66301 5:0.412903 6:-0.739377 7:-0.948151 8:-0.45095 9:-0.439497 10:-0.0128912 11:0.176355 
33.187643592225633 1:-0.508977 2:-0.744077 3:0.59135 4:-0.165102 5:-0.620192 6:0.267963 7:0.229 8:0.0135826 9:0.620334 10:-0.389517 11:-0.455942 
0.082425226206972735 1:0.70805 2:0.590132 3:-0.182174 4:0.844669 5:0.457251 6:-0.69394 7:-0.836372 8:-0.550207 9:-0.591607 10:0.172314 11:0.306988 
0.24147121621116602 1:0.329518 2:0.239329 3:0.231709 4:0.257549 5:0.42464 6:-0.101645 7:-0.628742 8:-0.484371 9:0.0196875 10:0.0368773 11:0.343339 
0.095770324762511683 1:-0.193049 2:1 3:-0.888647 4:-0.027149 5:0.164721 6:-0.473879 7:0.477877 8:0.706768 9:0.195682 10:-0.790693 11:-0.662848 
64 1:-0.456536 2:-0.732586 3:0.390472 4:-0.380978 5:-0.700017 6:-0.196914 7:0.0425217 8:0.295969 9:0.788801 10:-0.613454 11:-0.561958 
52.238006012246807 1:-0.567708 2:-0.627252 3:0.648468 4:-0.122762 5:-0.635445 6:0.163854 7:0.327655 8:0.117579 9:0.511441 10:-0.410008 11:-0.454027 
0.12663778383300159 1:0.29932 2:0.270406 3:-0.322546 4:0.500647 5:0.028336 6:-0.427102 7:-0.215182 8:-0.530107 9:-0.046629 10:-0.308146 11:-0.263752 
0.030382674437139649 1:0.76644 2:0.5223 3:-0.290848 4:0.728875 5:0.473918 6:-0.931522 7:-0.885751 8:-0.646952 9:-0.470724 10:0.107895 11:0.25178 
41.051931389761222 1:-0.503671 2:-0.346736 3:0.756189 4:0.019677 5:-0.502322 6:0.0910893 7:-0.190788 8:0.259624 9:0.64441 10:-0.66205 11:-0.41786 
4.0508773759874552 1:-0.347201 2:-0.715207 3:0.560542 4:-0.252341 5:-0.656762 6:-0.129133 7:0.188035 8:0.463326 9:0.650239 10:-0.743989 11:-0.579755 
64 1:-0.480485 2:-0.7797 3:0.510342 4:-0.284838 5:-0.660404 6:0.143921 7:0.386143 8:0.0799284 9:0.624734 10:-0.362208 11:-0.468377 
0.21811013091260847 1:-0.160505 2:0.667383 3:-0.789787 4:-0.00301333 5:-0.0991702 6:-0.326903 7:0.981422 8:0.817058 9:-0.0962087 10:-0.652891 11:-0.851599 
0.31481229229842195 1:0.0803563 2:0.976865 3:-1 4:0.0128321 5:0.314301 6:-0.525693 7:0.129521 8:0.743038 9:0.0326222 10:-0.482438 11:-0.341214 
12.579427140857716 1:-0.661349 2:-0.354505 3:0.93403 4:0.073946 5:-0.419604 6:0.141242 7:-0.227842 8:0.145565 9:0.522628 10:-0.426773 11:-0.288861 
62.065114705443072 1:-0.550898 2:-0.706229 3:0.52023 4:-0.120789 5:-0.743785 6:0.26148 7:0.270814 8:0.0741321 9:0.543421 10:-0.507001 11:-0.528681 
47.73469828287007 1:-0.486161 2:-0.792285 3:0.502816 4:-0.261591 5:-0.650385 6:0.111075 7:0.36072 8:0.102106 9:0.605776 10:-0.324911 11:-0.454239 
0.20570048816438102 1:-0.0717663 2:0.754743 3:-0.9941 4:-0.206312 5:-0.0784692 6:-0.642716 7:0.928569 8:1 9:-0.154365 10:-0.627541 11:-0.81626 
0.18286302234748178 1:0.234098 2:0.35792 3:-0.129354 4:1 5:0.0593389 6:0.0289878 7:-0.140534 8:-0.210717 9:-0.110806 10:-0.434158 11:-0.317744 
36.70116613714508 1:-0.414152 2:-0.756892 3:0.349729 4:-0.376255 5:-0.7203 6:-0.204254 7:0.10999 8:0.284202 9:0.793434 10:-0.588466 11:-0.569267 
0.48718942170038954 1:-0.452067 2:0.477105 3:0.170837 4:0.0226758 5:-0.0532685 6:0.428924 7:0.220946 8:0.0442056 9:0.0437768 10:-0.641527 11:-0.584308 
0.48061405694117909 1:0.814049 2:0.752767 3:0.842077 4:0.845886 5:1 6:-0.954723 7:-0.870003 8:-0.208366 9:-1 10:1 11:1 
-15.072446315657052 1:-0.431084 2:-0.603541 3:0.54357 4:-0.257005 5:-0.59292 6:0.218132 7:0.0404374 8:-0.0201003 9:0.619633 10:-0.478541 11:-0.382905 
-38.892068532378175 1:-0.498694 2:-0.558921 3:0.559446 4:-0.257084 5:-0.563326 6:0.143332 7:0.0655002 8:0.0969688 9:0.645814 10:-0.539023 11:-0.430811 
-3.2109957197757222 1:-0.528683 2:-0.713039 3:0.765208 4:-0.252578 5:-0.645809 6:0.157531 7:0.332133 8:0.0631242 9:0.456795 10:-0.248447 11:-0.357356 
-21.043498568600288 1:-0.517718 2:-0.800552 3:0.695501 4:-0.245504 5:-0.672975 6:0.188233 7:0.333522 8:0.0161324 9:0.470565 10:-0.195433 11:-0.340633 
-64 1:-0.463565 2:-0.641601 3:0.412084 4:-0.294569 5:-0.689323 6:-0.164068 7:0.0864715 8:0.331915 9:0.761229 10:-0.615469 11:-0.544987 
-18.555907907209665 1:-0.62241 2:-0.464233 3:0.63757 4:0.212684 5:-0.551757 6:0.39222 7:0.0987713 8:0.107168 9:0.575194 10:-0.421646 11:-0.365562 
-11.767127280862946 1:-0.458495 2:-0.66487 3:0.400045 4:-0.347879 5:-0.707475 6:-0.0318277 7:0.0484915 8:0.374392 9:0.725392 10:-0.589054 11:-0.512424 
-9.4457661571237352 1:-0.61182 2:-0.685223 3:0.67477 4:-0.0670679 5:-0.60939 6:0.354284 7:0.218656 8:0.0175628 9:0.507447 10:-0.210599 11:-0.339792 
-45.999095615745247 1:-0.573813 2:-0.721307 3:0.479806 4:-0.104524 5:-0.766369 6:0.25714 7:0.165777 8:0.136448 9:0.638382 10:-0.502533 11:-0.512284 
-2.2130447485469658 1:-0.552627 2:-0.661033 3:0.446947 4:-0.268095 5:-0.741855 6:-0.0713176 7:-0.0332068 8:0.417229 9:0.8845 10:-0.731274 11:-0.602991 
-3.3005071140066833 1:-0.378104 2:-0.662491 3:0.981584 4:0.157368 5:-0.567967 6:0.4024 7:-0.260624 8:0.105141 9:0.377636 10:-0.240208 11:-0.25004 
-7.8395944417072538 1:-0.507376 2:-0.786875 3:0.517617 4:-0.386136 5:-0.763231 6:0.0981621 7:0.268524 8:0.0491312 9:0.555134 10:-0.396877 11:-0.494353 
-64 1:-0.508752 2:-0.879338 3:0.539846 4:-0.333151 5:-0.728288 6:0.14735 7:0.56063 8:0.129719 9:0.638324 10:-0.352463 11:-0.528537 
-19.011543956299352 1:-0.598184 2:-0.539258 3:0.672578 4:-0.152264 5:-0.542666 6:0.0651021 7:0.0401029 8:0.0765203 9:0.617536 10:-0.531188 11:-0.46063 
-21.154160017704729 1:-0.483294 2:-0.672677 3:0.395211 4:-0.261483 5:-0.726579 6:-0.128436 7:0.112615 8:0.373273 9:0.810248 10:-0.659075 11:-0.583238 
-14.399011652994034 1:-0.548349 2:-0.796658 3:0.436899 4:-0.29189 5:-0.768208 6:0.00637625 7:0.230389 8:0.350672 9:0.746055 10:-0.580385 11:-0.609603 
-47.066157870274004 1:-0.497491 2:-0.669608 3:0.414714 4:-0.22936 5:-0.71773 6:-0.0977871 7:0.0977935 8:0.365399 9:0.81766 10:-0.67425 11:-0.590848 
-16.027267616379778 1:-0.551974 2:-0.680274 3:0.678334 4:-0.24886 5:-0.587704 6:0.197878 7:0.298347 8:-0.00914213 9:0.46228 10:-0.187101 11:-0.29799 
-16.477698745516072 1:-0.62974 2:-0.497938 3:0.737149 4:-0.120207 5:-0.632911 6:0.0528318 7:0.0183596 8:0.228217 9:0.610812 10:-0.653592 11:-0.629175 
-22.023211121328163 1:-0.425713 2:-0.786875 3:0.379465 4:-0.355762 5:-0.789501 6:-0.185554 7:0.262785 8:0.353856 9:0.725118 10:-0.553846 11:-0.566296 
-23.999582805160347 1:-0.520724 2:-0.895931 3:0.462791 4:-0.339796 5:-0.837144 6:0.156084 7:0.409637 8:0.0314813 9:0.676403 10:-0.477941 11:-0.56745 
-16.167734364657154 1:-0.646735 2:-0.432696 3:0.613208 4:-0.0493742 5:-0.588921 6:0.00396506 7:0.147044 8:0.168315 9:0.60068 10:-0.630779 11:-0.626108 
-8.0014772542904016 1:-0.515533 2:-0.461125 3:0.766357 4:0.0450214 5:-0.558031 6:0.228527 7:-0.0844387 8:0.26103 9:0.62353 10:-0.438169 11:-0.334 
-64 1:-0.398521 2:-0.782424 3:0.380462 4:-0.424389 5:-0.710885 6:-0.225098 7:0.0963525 8:0.297014 9:0.752822 10:-0.549302 11:-0.551915 
